<?xml version="1.0" encoding="UTF-8" standalone="yes"?>
<PMML xmlns="http://www.dmg.org/PMML-4_4" xmlns:data="http://jpmml.org/jpmml-model/InlineTable" version="4.4">
	<Header>
		<Application name="SkLearn2PMML package" version="0.110.0"/>
		<Timestamp>2024-08-16T17:24:44Z</Timestamp>
	</Header>
	<DataDictionary>
		<DataField name="y" optype="continuous" dataType="double"/>
		<DataField name="x1" optype="continuous" dataType="double">
			<Value value="NaN" property="missing"/>
		</DataField>
		<DataField name="x2" optype="continuous" dataType="double">
			<Value value="NaN" property="missing"/>
		</DataField>
		<DataField name="x3" optype="continuous" dataType="double">
			<Value value="NaN" property="missing"/>
		</DataField>
		<DataField name="x4" optype="continuous" dataType="double">
			<Value value="NaN" property="missing"/>
		</DataField>
		<DataField name="x5" optype="continuous" dataType="double">
			<Value value="NaN" property="missing"/>
		</DataField>
		<DataField name="x6" optype="continuous" dataType="double">
			<Value value="NaN" property="missing"/>
		</DataField>
		<DataField name="x7" optype="continuous" dataType="double">
			<Value value="NaN" property="missing"/>
		</DataField>
		<DataField name="x8" optype="continuous" dataType="double">
			<Value value="NaN" property="missing"/>
		</DataField>
		<DataField name="x9" optype="continuous" dataType="double">
			<Value value="NaN" property="missing"/>
		</DataField>
		<DataField name="x10" optype="continuous" dataType="double">
			<Value value="NaN" property="missing"/>
		</DataField>
		<DataField name="x11" optype="continuous" dataType="double">
			<Value value="NaN" property="missing"/>
		</DataField>
		<DataField name="x12" optype="continuous" dataType="double">
			<Value value="NaN" property="missing"/>
		</DataField>
		<DataField name="x13" optype="continuous" dataType="double">
			<Value value="NaN" property="missing"/>
		</DataField>
		<DataField name="x14" optype="continuous" dataType="double">
			<Value value="NaN" property="missing"/>
		</DataField>
		<DataField name="x15" optype="continuous" dataType="double">
			<Value value="NaN" property="missing"/>
		</DataField>
		<DataField name="x16" optype="continuous" dataType="double">
			<Value value="NaN" property="missing"/>
		</DataField>
		<DataField name="x17" optype="continuous" dataType="double">
			<Value value="NaN" property="missing"/>
		</DataField>
		<DataField name="x18" optype="continuous" dataType="double">
			<Value value="NaN" property="missing"/>
		</DataField>
		<DataField name="x19" optype="continuous" dataType="double">
			<Value value="NaN" property="missing"/>
		</DataField>
		<DataField name="x20" optype="continuous" dataType="double">
			<Value value="NaN" property="missing"/>
		</DataField>
		<DataField name="x21" optype="continuous" dataType="double">
			<Value value="NaN" property="missing"/>
		</DataField>
		<DataField name="x22" optype="continuous" dataType="double">
			<Value value="NaN" property="missing"/>
		</DataField>
		<DataField name="x24" optype="continuous" dataType="double">
			<Value value="NaN" property="missing"/>
		</DataField>
		<DataField name="x25" optype="continuous" dataType="double">
			<Value value="NaN" property="missing"/>
		</DataField>
		<DataField name="x27" optype="continuous" dataType="double">
			<Value value="NaN" property="missing"/>
		</DataField>
		<DataField name="x30" optype="continuous" dataType="double">
			<Value value="NaN" property="missing"/>
		</DataField>
		<DataField name="x31" optype="continuous" dataType="double">
			<Value value="NaN" property="missing"/>
		</DataField>
		<DataField name="x32" optype="continuous" dataType="double">
			<Value value="NaN" property="missing"/>
		</DataField>
		<DataField name="x34" optype="continuous" dataType="double">
			<Value value="NaN" property="missing"/>
		</DataField>
		<DataField name="x35" optype="continuous" dataType="double">
			<Value value="NaN" property="missing"/>
		</DataField>
		<DataField name="x36" optype="continuous" dataType="double">
			<Value value="NaN" property="missing"/>
		</DataField>
		<DataField name="x37" optype="continuous" dataType="double">
			<Value value="NaN" property="missing"/>
		</DataField>
		<DataField name="x40" optype="continuous" dataType="double">
			<Value value="NaN" property="missing"/>
		</DataField>
		<DataField name="x41" optype="continuous" dataType="double">
			<Value value="NaN" property="missing"/>
		</DataField>
		<DataField name="x42" optype="continuous" dataType="double">
			<Value value="NaN" property="missing"/>
		</DataField>
		<DataField name="x43" optype="continuous" dataType="double">
			<Value value="NaN" property="missing"/>
		</DataField>
		<DataField name="x44" optype="continuous" dataType="double">
			<Value value="NaN" property="missing"/>
		</DataField>
		<DataField name="x45" optype="continuous" dataType="double">
			<Value value="NaN" property="missing"/>
		</DataField>
		<DataField name="x46" optype="continuous" dataType="double">
			<Value value="NaN" property="missing"/>
		</DataField>
		<DataField name="x51" optype="continuous" dataType="double">
			<Value value="NaN" property="missing"/>
		</DataField>
		<DataField name="x52" optype="continuous" dataType="double">
			<Value value="NaN" property="missing"/>
		</DataField>
		<DataField name="x53" optype="continuous" dataType="double">
			<Value value="NaN" property="missing"/>
		</DataField>
		<DataField name="x54" optype="continuous" dataType="double">
			<Value value="NaN" property="missing"/>
		</DataField>
		<DataField name="x55" optype="continuous" dataType="double">
			<Value value="NaN" property="missing"/>
		</DataField>
		<DataField name="x56" optype="continuous" dataType="double">
			<Value value="NaN" property="missing"/>
		</DataField>
		<DataField name="x57" optype="continuous" dataType="double">
			<Value value="NaN" property="missing"/>
		</DataField>
		<DataField name="x58" optype="continuous" dataType="double">
			<Value value="NaN" property="missing"/>
		</DataField>
		<DataField name="x59" optype="continuous" dataType="double">
			<Value value="NaN" property="missing"/>
		</DataField>
		<DataField name="x62" optype="continuous" dataType="double">
			<Value value="NaN" property="missing"/>
		</DataField>
		<DataField name="x63" optype="continuous" dataType="double">
			<Value value="NaN" property="missing"/>
		</DataField>
		<DataField name="x64" optype="continuous" dataType="double">
			<Value value="NaN" property="missing"/>
		</DataField>
		<DataField name="x65" optype="continuous" dataType="double">
			<Value value="NaN" property="missing"/>
		</DataField>
		<DataField name="x66" optype="continuous" dataType="double">
			<Value value="NaN" property="missing"/>
		</DataField>
		<DataField name="x72" optype="continuous" dataType="double">
			<Value value="NaN" property="missing"/>
		</DataField>
		<DataField name="x73" optype="continuous" dataType="double">
			<Value value="NaN" property="missing"/>
		</DataField>
		<DataField name="x74" optype="continuous" dataType="double">
			<Value value="NaN" property="missing"/>
		</DataField>
		<DataField name="x75" optype="continuous" dataType="double">
			<Value value="NaN" property="missing"/>
		</DataField>
		<DataField name="x76" optype="continuous" dataType="double">
			<Value value="NaN" property="missing"/>
		</DataField>
		<DataField name="x80" optype="continuous" dataType="double">
			<Value value="NaN" property="missing"/>
		</DataField>
		<DataField name="x81" optype="continuous" dataType="double">
			<Value value="NaN" property="missing"/>
		</DataField>
		<DataField name="x82" optype="continuous" dataType="double">
			<Value value="NaN" property="missing"/>
		</DataField>
		<DataField name="x84" optype="continuous" dataType="double">
			<Value value="NaN" property="missing"/>
		</DataField>
		<DataField name="x85" optype="continuous" dataType="double">
			<Value value="NaN" property="missing"/>
		</DataField>
		<DataField name="x86" optype="continuous" dataType="double">
			<Value value="NaN" property="missing"/>
		</DataField>
		<DataField name="x87" optype="continuous" dataType="double">
			<Value value="NaN" property="missing"/>
		</DataField>
		<DataField name="x88" optype="continuous" dataType="double">
			<Value value="NaN" property="missing"/>
		</DataField>
		<DataField name="x89" optype="continuous" dataType="double">
			<Value value="NaN" property="missing"/>
		</DataField>
		<DataField name="x91" optype="continuous" dataType="double">
			<Value value="NaN" property="missing"/>
		</DataField>
		<DataField name="x97" optype="continuous" dataType="double">
			<Value value="NaN" property="missing"/>
		</DataField>
		<DataField name="x98" optype="continuous" dataType="double">
			<Value value="NaN" property="missing"/>
		</DataField>
		<DataField name="x99" optype="continuous" dataType="double">
			<Value value="NaN" property="missing"/>
		</DataField>
		<DataField name="x100" optype="continuous" dataType="double">
			<Value value="NaN" property="missing"/>
		</DataField>
		<DataField name="x102" optype="continuous" dataType="double">
			<Value value="NaN" property="missing"/>
		</DataField>
		<DataField name="x103" optype="continuous" dataType="double">
			<Value value="NaN" property="missing"/>
		</DataField>
		<DataField name="x104" optype="continuous" dataType="double">
			<Value value="NaN" property="missing"/>
		</DataField>
		<DataField name="x105" optype="continuous" dataType="double">
			<Value value="NaN" property="missing"/>
		</DataField>
		<DataField name="x108" optype="continuous" dataType="double">
			<Value value="NaN" property="missing"/>
		</DataField>
		<DataField name="x109" optype="continuous" dataType="double">
			<Value value="NaN" property="missing"/>
		</DataField>
		<DataField name="x110" optype="continuous" dataType="double">
			<Value value="NaN" property="missing"/>
		</DataField>
		<DataField name="x111" optype="continuous" dataType="double">
			<Value value="NaN" property="missing"/>
		</DataField>
		<DataField name="x117" optype="continuous" dataType="double">
			<Value value="NaN" property="missing"/>
		</DataField>
		<DataField name="x118" optype="continuous" dataType="double">
			<Value value="NaN" property="missing"/>
		</DataField>
		<DataField name="x119" optype="continuous" dataType="double">
			<Value value="NaN" property="missing"/>
		</DataField>
		<DataField name="x120" optype="continuous" dataType="double">
			<Value value="NaN" property="missing"/>
		</DataField>
		<DataField name="x121" optype="continuous" dataType="double">
			<Value value="NaN" property="missing"/>
		</DataField>
		<DataField name="x123" optype="continuous" dataType="double">
			<Value value="NaN" property="missing"/>
		</DataField>
		<DataField name="x128" optype="continuous" dataType="double">
			<Value value="NaN" property="missing"/>
		</DataField>
		<DataField name="x131" optype="continuous" dataType="double">
			<Value value="NaN" property="missing"/>
		</DataField>
		<DataField name="x133" optype="continuous" dataType="double">
			<Value value="NaN" property="missing"/>
		</DataField>
		<DataField name="x136" optype="continuous" dataType="double">
			<Value value="NaN" property="missing"/>
		</DataField>
		<DataField name="x138" optype="continuous" dataType="double">
			<Value value="NaN" property="missing"/>
		</DataField>
		<DataField name="x141" optype="continuous" dataType="double">
			<Value value="NaN" property="missing"/>
		</DataField>
		<DataField name="x144" optype="continuous" dataType="double">
			<Value value="NaN" property="missing"/>
		</DataField>
		<DataField name="x145" optype="continuous" dataType="double">
			<Value value="NaN" property="missing"/>
		</DataField>
		<DataField name="x146" optype="continuous" dataType="double">
			<Value value="NaN" property="missing"/>
		</DataField>
		<DataField name="x147" optype="continuous" dataType="double">
			<Value value="NaN" property="missing"/>
		</DataField>
		<DataField name="x148" optype="continuous" dataType="double">
			<Value value="NaN" property="missing"/>
		</DataField>
		<DataField name="x150" optype="continuous" dataType="double">
			<Value value="NaN" property="missing"/>
		</DataField>
		<DataField name="x153" optype="continuous" dataType="double">
			<Value value="NaN" property="missing"/>
		</DataField>
		<DataField name="x154" optype="continuous" dataType="double">
			<Value value="NaN" property="missing"/>
		</DataField>
		<DataField name="x155" optype="continuous" dataType="double">
			<Value value="NaN" property="missing"/>
		</DataField>
		<DataField name="x158" optype="continuous" dataType="double">
			<Value value="NaN" property="missing"/>
		</DataField>
		<DataField name="x159" optype="continuous" dataType="double">
			<Value value="NaN" property="missing"/>
		</DataField>
		<DataField name="x160" optype="continuous" dataType="double">
			<Value value="NaN" property="missing"/>
		</DataField>
		<DataField name="x162" optype="continuous" dataType="double">
			<Value value="NaN" property="missing"/>
		</DataField>
		<DataField name="x164" optype="continuous" dataType="double">
			<Value value="NaN" property="missing"/>
		</DataField>
		<DataField name="x168" optype="continuous" dataType="double">
			<Value value="NaN" property="missing"/>
		</DataField>
		<DataField name="x169" optype="continuous" dataType="double">
			<Value value="NaN" property="missing"/>
		</DataField>
		<DataField name="x170" optype="continuous" dataType="double">
			<Value value="NaN" property="missing"/>
		</DataField>
		<DataField name="x171" optype="continuous" dataType="double">
			<Value value="NaN" property="missing"/>
		</DataField>
		<DataField name="x172" optype="continuous" dataType="double">
			<Value value="NaN" property="missing"/>
		</DataField>
		<DataField name="x174" optype="continuous" dataType="double">
			<Value value="NaN" property="missing"/>
		</DataField>
		<DataField name="x176" optype="continuous" dataType="double">
			<Value value="NaN" property="missing"/>
		</DataField>
		<DataField name="x180" optype="continuous" dataType="double">
			<Value value="NaN" property="missing"/>
		</DataField>
		<DataField name="x181" optype="continuous" dataType="double">
			<Value value="NaN" property="missing"/>
		</DataField>
		<DataField name="x182" optype="continuous" dataType="double">
			<Value value="NaN" property="missing"/>
		</DataField>
		<DataField name="x183" optype="continuous" dataType="double">
			<Value value="NaN" property="missing"/>
		</DataField>
		<DataField name="x184" optype="continuous" dataType="double">
			<Value value="NaN" property="missing"/>
		</DataField>
		<DataField name="x186" optype="continuous" dataType="double">
			<Value value="NaN" property="missing"/>
		</DataField>
		<DataField name="x187" optype="continuous" dataType="double">
			<Value value="NaN" property="missing"/>
		</DataField>
		<DataField name="x188" optype="continuous" dataType="double">
			<Value value="NaN" property="missing"/>
		</DataField>
		<DataField name="x191" optype="continuous" dataType="double">
			<Value value="NaN" property="missing"/>
		</DataField>
		<DataField name="x192" optype="continuous" dataType="double">
			<Value value="NaN" property="missing"/>
		</DataField>
		<DataField name="x193" optype="continuous" dataType="double">
			<Value value="NaN" property="missing"/>
		</DataField>
		<DataField name="x194" optype="continuous" dataType="double">
			<Value value="NaN" property="missing"/>
		</DataField>
		<DataField name="x195" optype="continuous" dataType="double">
			<Value value="NaN" property="missing"/>
		</DataField>
		<DataField name="x196" optype="continuous" dataType="double">
			<Value value="NaN" property="missing"/>
		</DataField>
		<DataField name="x197" optype="continuous" dataType="double">
			<Value value="NaN" property="missing"/>
		</DataField>
		<DataField name="x198" optype="continuous" dataType="double">
			<Value value="NaN" property="missing"/>
		</DataField>
		<DataField name="x203" optype="continuous" dataType="double">
			<Value value="NaN" property="missing"/>
		</DataField>
		<DataField name="x204" optype="continuous" dataType="double">
			<Value value="NaN" property="missing"/>
		</DataField>
		<DataField name="x205" optype="continuous" dataType="double">
			<Value value="NaN" property="missing"/>
		</DataField>
		<DataField name="x208" optype="continuous" dataType="double">
			<Value value="NaN" property="missing"/>
		</DataField>
		<DataField name="x209" optype="continuous" dataType="double">
			<Value value="NaN" property="missing"/>
		</DataField>
		<DataField name="x210" optype="continuous" dataType="double">
			<Value value="NaN" property="missing"/>
		</DataField>
		<DataField name="x214" optype="continuous" dataType="double">
			<Value value="NaN" property="missing"/>
		</DataField>
		<DataField name="x215" optype="continuous" dataType="double">
			<Value value="NaN" property="missing"/>
		</DataField>
		<DataField name="x216" optype="continuous" dataType="double">
			<Value value="NaN" property="missing"/>
		</DataField>
		<DataField name="x218" optype="continuous" dataType="double">
			<Value value="NaN" property="missing"/>
		</DataField>
		<DataField name="x219" optype="continuous" dataType="double">
			<Value value="NaN" property="missing"/>
		</DataField>
		<DataField name="x220" optype="continuous" dataType="double">
			<Value value="NaN" property="missing"/>
		</DataField>
		<DataField name="x221" optype="continuous" dataType="double">
			<Value value="NaN" property="missing"/>
		</DataField>
		<DataField name="x222" optype="continuous" dataType="double">
			<Value value="NaN" property="missing"/>
		</DataField>
		<DataField name="x223" optype="continuous" dataType="double">
			<Value value="NaN" property="missing"/>
		</DataField>
		<DataField name="x224" optype="continuous" dataType="double">
			<Value value="NaN" property="missing"/>
		</DataField>
		<DataField name="x226" optype="continuous" dataType="double">
			<Value value="NaN" property="missing"/>
		</DataField>
		<DataField name="x228" optype="continuous" dataType="double">
			<Value value="NaN" property="missing"/>
		</DataField>
		<DataField name="x230" optype="continuous" dataType="double">
			<Value value="NaN" property="missing"/>
		</DataField>
		<DataField name="x231" optype="continuous" dataType="double">
			<Value value="NaN" property="missing"/>
		</DataField>
		<DataField name="x232" optype="continuous" dataType="double">
			<Value value="NaN" property="missing"/>
		</DataField>
		<DataField name="x233" optype="continuous" dataType="double">
			<Value value="NaN" property="missing"/>
		</DataField>
		<DataField name="x234" optype="continuous" dataType="double">
			<Value value="NaN" property="missing"/>
		</DataField>
		<DataField name="x235" optype="continuous" dataType="double">
			<Value value="NaN" property="missing"/>
		</DataField>
		<DataField name="x236" optype="continuous" dataType="double">
			<Value value="NaN" property="missing"/>
		</DataField>
		<DataField name="x237" optype="continuous" dataType="double">
			<Value value="NaN" property="missing"/>
		</DataField>
		<DataField name="x238" optype="continuous" dataType="double">
			<Value value="NaN" property="missing"/>
		</DataField>
		<DataField name="x239" optype="continuous" dataType="double">
			<Value value="NaN" property="missing"/>
		</DataField>
		<DataField name="x240" optype="continuous" dataType="double">
			<Value value="NaN" property="missing"/>
		</DataField>
		<DataField name="x241" optype="continuous" dataType="double">
			<Value value="NaN" property="missing"/>
		</DataField>
		<DataField name="x242" optype="continuous" dataType="double">
			<Value value="NaN" property="missing"/>
		</DataField>
		<DataField name="x243" optype="continuous" dataType="double">
			<Value value="NaN" property="missing"/>
		</DataField>
		<DataField name="x244" optype="continuous" dataType="double">
			<Value value="NaN" property="missing"/>
		</DataField>
		<DataField name="x245" optype="continuous" dataType="double">
			<Value value="NaN" property="missing"/>
		</DataField>
		<DataField name="x246" optype="continuous" dataType="double">
			<Value value="NaN" property="missing"/>
		</DataField>
		<DataField name="x247" optype="continuous" dataType="double">
			<Value value="NaN" property="missing"/>
		</DataField>
		<DataField name="x248" optype="continuous" dataType="double">
			<Value value="NaN" property="missing"/>
		</DataField>
		<DataField name="x249" optype="continuous" dataType="double">
			<Value value="NaN" property="missing"/>
		</DataField>
		<DataField name="x251" optype="continuous" dataType="double">
			<Value value="NaN" property="missing"/>
		</DataField>
		<DataField name="x252" optype="continuous" dataType="double">
			<Value value="NaN" property="missing"/>
		</DataField>
		<DataField name="x253" optype="continuous" dataType="double">
			<Value value="NaN" property="missing"/>
		</DataField>
		<DataField name="x255" optype="continuous" dataType="double">
			<Value value="NaN" property="missing"/>
		</DataField>
		<DataField name="x257" optype="continuous" dataType="double">
			<Value value="NaN" property="missing"/>
		</DataField>
		<DataField name="x258" optype="continuous" dataType="double">
			<Value value="NaN" property="missing"/>
		</DataField>
		<DataField name="x259" optype="continuous" dataType="double">
			<Value value="NaN" property="missing"/>
		</DataField>
		<DataField name="x260" optype="continuous" dataType="double">
			<Value value="NaN" property="missing"/>
		</DataField>
		<DataField name="x262" optype="continuous" dataType="double">
			<Value value="NaN" property="missing"/>
		</DataField>
		<DataField name="x263" optype="continuous" dataType="double">
			<Value value="NaN" property="missing"/>
		</DataField>
		<DataField name="x264" optype="continuous" dataType="double">
			<Value value="NaN" property="missing"/>
		</DataField>
		<DataField name="x265" optype="continuous" dataType="double">
			<Value value="NaN" property="missing"/>
		</DataField>
		<DataField name="x266" optype="continuous" dataType="double">
			<Value value="NaN" property="missing"/>
		</DataField>
		<DataField name="x268" optype="continuous" dataType="double">
			<Value value="NaN" property="missing"/>
		</DataField>
		<DataField name="x269" optype="continuous" dataType="double">
			<Value value="NaN" property="missing"/>
		</DataField>
		<DataField name="x270" optype="continuous" dataType="double">
			<Value value="NaN" property="missing"/>
		</DataField>
		<DataField name="x272" optype="continuous" dataType="double">
			<Value value="NaN" property="missing"/>
		</DataField>
		<DataField name="x273" optype="continuous" dataType="double">
			<Value value="NaN" property="missing"/>
		</DataField>
		<DataField name="x274" optype="continuous" dataType="double">
			<Value value="NaN" property="missing"/>
		</DataField>
		<DataField name="x275" optype="continuous" dataType="double">
			<Value value="NaN" property="missing"/>
		</DataField>
		<DataField name="x277" optype="continuous" dataType="double">
			<Value value="NaN" property="missing"/>
		</DataField>
		<DataField name="x278" optype="continuous" dataType="double">
			<Value value="NaN" property="missing"/>
		</DataField>
		<DataField name="x279" optype="continuous" dataType="double">
			<Value value="NaN" property="missing"/>
		</DataField>
		<DataField name="x280" optype="continuous" dataType="double">
			<Value value="NaN" property="missing"/>
		</DataField>
		<DataField name="x281" optype="continuous" dataType="double">
			<Value value="NaN" property="missing"/>
		</DataField>
		<DataField name="x282" optype="continuous" dataType="double">
			<Value value="NaN" property="missing"/>
		</DataField>
		<DataField name="x283" optype="continuous" dataType="double">
			<Value value="NaN" property="missing"/>
		</DataField>
		<DataField name="x284" optype="continuous" dataType="double">
			<Value value="NaN" property="missing"/>
		</DataField>
		<DataField name="x285" optype="continuous" dataType="double">
			<Value value="NaN" property="missing"/>
		</DataField>
		<DataField name="x286" optype="continuous" dataType="double">
			<Value value="NaN" property="missing"/>
		</DataField>
		<DataField name="x287" optype="continuous" dataType="double">
			<Value value="NaN" property="missing"/>
		</DataField>
		<DataField name="x288" optype="continuous" dataType="double">
			<Value value="NaN" property="missing"/>
		</DataField>
		<DataField name="x289" optype="continuous" dataType="double">
			<Value value="NaN" property="missing"/>
		</DataField>
		<DataField name="x290" optype="continuous" dataType="double">
			<Value value="NaN" property="missing"/>
		</DataField>
		<DataField name="x291" optype="continuous" dataType="double">
			<Value value="NaN" property="missing"/>
		</DataField>
		<DataField name="x292" optype="continuous" dataType="double">
			<Value value="NaN" property="missing"/>
		</DataField>
		<DataField name="x293" optype="continuous" dataType="double">
			<Value value="NaN" property="missing"/>
		</DataField>
		<DataField name="x294" optype="continuous" dataType="double">
			<Value value="NaN" property="missing"/>
		</DataField>
		<DataField name="x295" optype="continuous" dataType="double">
			<Value value="NaN" property="missing"/>
		</DataField>
		<DataField name="x296" optype="continuous" dataType="double">
			<Value value="NaN" property="missing"/>
		</DataField>
		<DataField name="x297" optype="continuous" dataType="double">
			<Value value="NaN" property="missing"/>
		</DataField>
		<DataField name="x298" optype="continuous" dataType="double">
			<Value value="NaN" property="missing"/>
		</DataField>
		<DataField name="x300" optype="continuous" dataType="double">
			<Value value="NaN" property="missing"/>
		</DataField>
		<DataField name="x301" optype="continuous" dataType="double">
			<Value value="NaN" property="missing"/>
		</DataField>
		<DataField name="x302" optype="continuous" dataType="double">
			<Value value="NaN" property="missing"/>
		</DataField>
		<DataField name="x303" optype="continuous" dataType="double">
			<Value value="NaN" property="missing"/>
		</DataField>
		<DataField name="x304" optype="continuous" dataType="double">
			<Value value="NaN" property="missing"/>
		</DataField>
	</DataDictionary>
	<MiningModel functionName="regression" algorithmName="LightGBM">
		<MiningSchema>
			<Extension name="X-FeatureImportances">
				<InlineTable>
					<Extension name="numberOfImportances" value="214"/>
					<Extension name="numberOfNonZeroImportances" value="214"/>
					<Extension name="sumOfImportances" value="3000.0"/>
					<Extension name="minImportance" value="1.0"/>
					<Extension name="maxImportance" value="122.0"/>
					<row>
						<data:name>x6</data:name>
						<data:importance>4.0</data:importance>
					</row>
					<row>
						<data:name>x18</data:name>
						<data:importance>10.0</data:importance>
					</row>
					<row>
						<data:name>x273</data:name>
						<data:importance>15.0</data:importance>
					</row>
					<row>
						<data:name>x188</data:name>
						<data:importance>1.0</data:importance>
					</row>
					<row>
						<data:name>x176</data:name>
						<data:importance>1.0</data:importance>
					</row>
					<row>
						<data:name>x285</data:name>
						<data:importance>8.0</data:importance>
					</row>
					<row>
						<data:name>x164</data:name>
						<data:importance>3.0</data:importance>
					</row>
					<row>
						<data:name>x297</data:name>
						<data:importance>22.0</data:importance>
					</row>
					<row>
						<data:name>x303</data:name>
						<data:importance>7.0</data:importance>
					</row>
					<row>
						<data:name>x73</data:name>
						<data:importance>3.0</data:importance>
					</row>
					<row>
						<data:name>x109</data:name>
						<data:importance>1.0</data:importance>
					</row>
					<row>
						<data:name>x218</data:name>
						<data:importance>2.0</data:importance>
					</row>
					<row>
						<data:name>x97</data:name>
						<data:importance>6.0</data:importance>
					</row>
					<row>
						<data:name>x85</data:name>
						<data:importance>4.0</data:importance>
					</row>
					<row>
						<data:name>x7</data:name>
						<data:importance>7.0</data:importance>
					</row>
					<row>
						<data:name>x19</data:name>
						<data:importance>18.0</data:importance>
					</row>
					<row>
						<data:name>x141</data:name>
						<data:importance>1.0</data:importance>
					</row>
					<row>
						<data:name>x262</data:name>
						<data:importance>1.0</data:importance>
					</row>
					<row>
						<data:name>x298</data:name>
						<data:importance>4.0</data:importance>
					</row>
					<row>
						<data:name>x274</data:name>
						<data:importance>66.0</data:importance>
					</row>
					<row>
						<data:name>x153</data:name>
						<data:importance>1.0</data:importance>
					</row>
					<row>
						<data:name>x286</data:name>
						<data:importance>12.0</data:importance>
					</row>
					<row>
						<data:name>x98</data:name>
						<data:importance>24.0</data:importance>
					</row>
					<row>
						<data:name>x62</data:name>
						<data:importance>1.0</data:importance>
					</row>
					<row>
						<data:name>x219</data:name>
						<data:importance>8.0</data:importance>
					</row>
					<row>
						<data:name>x86</data:name>
						<data:importance>3.0</data:importance>
					</row>
					<row>
						<data:name>x304</data:name>
						<data:importance>21.0</data:importance>
					</row>
					<row>
						<data:name>x74</data:name>
						<data:importance>4.0</data:importance>
					</row>
					<row>
						<data:name>x4</data:name>
						<data:importance>21.0</data:importance>
					</row>
					<row>
						<data:name>x251</data:name>
						<data:importance>5.0</data:importance>
					</row>
					<row>
						<data:name>x287</data:name>
						<data:importance>39.0</data:importance>
					</row>
					<row>
						<data:name>x154</data:name>
						<data:importance>1.0</data:importance>
					</row>
					<row>
						<data:name>x263</data:name>
						<data:importance>1.0</data:importance>
					</row>
					<row>
						<data:name>x275</data:name>
						<data:importance>53.0</data:importance>
					</row>
					<row>
						<data:name>x99</data:name>
						<data:importance>26.0</data:importance>
					</row>
					<row>
						<data:name>x87</data:name>
						<data:importance>3.0</data:importance>
					</row>
					<row>
						<data:name>x51</data:name>
						<data:importance>8.0</data:importance>
					</row>
					<row>
						<data:name>x208</data:name>
						<data:importance>2.0</data:importance>
					</row>
					<row>
						<data:name>x75</data:name>
						<data:importance>98.0</data:importance>
					</row>
					<row>
						<data:name>x63</data:name>
						<data:importance>8.0</data:importance>
					</row>
					<row>
						<data:name>x5</data:name>
						<data:importance>100.0</data:importance>
					</row>
					<row>
						<data:name>x240</data:name>
						<data:importance>38.0</data:importance>
					</row>
					<row>
						<data:name>x155</data:name>
						<data:importance>3.0</data:importance>
					</row>
					<row>
						<data:name>x288</data:name>
						<data:importance>5.0</data:importance>
					</row>
					<row>
						<data:name>x252</data:name>
						<data:importance>1.0</data:importance>
					</row>
					<row>
						<data:name>x131</data:name>
						<data:importance>1.0</data:importance>
					</row>
					<row>
						<data:name>x264</data:name>
						<data:importance>10.0</data:importance>
					</row>
					<row>
						<data:name>x88</data:name>
						<data:importance>8.0</data:importance>
					</row>
					<row>
						<data:name>x76</data:name>
						<data:importance>40.0</data:importance>
					</row>
					<row>
						<data:name>x289</data:name>
						<data:importance>5.0</data:importance>
					</row>
					<row>
						<data:name>x168</data:name>
						<data:importance>10.0</data:importance>
					</row>
					<row>
						<data:name>x40</data:name>
						<data:importance>7.0</data:importance>
					</row>
					<row>
						<data:name>x64</data:name>
						<data:importance>7.0</data:importance>
					</row>
					<row>
						<data:name>x52</data:name>
						<data:importance>6.0</data:importance>
					</row>
					<row>
						<data:name>x209</data:name>
						<data:importance>9.0</data:importance>
					</row>
					<row>
						<data:name>x196</data:name>
						<data:importance>1.0</data:importance>
					</row>
					<row>
						<data:name>x184</data:name>
						<data:importance>1.0</data:importance>
					</row>
					<row>
						<data:name>x172</data:name>
						<data:importance>8.0</data:importance>
					</row>
					<row>
						<data:name>x281</data:name>
						<data:importance>52.0</data:importance>
					</row>
					<row>
						<data:name>x160</data:name>
						<data:importance>1.0</data:importance>
					</row>
					<row>
						<data:name>x293</data:name>
						<data:importance>53.0</data:importance>
					</row>
					<row>
						<data:name>x105</data:name>
						<data:importance>2.0</data:importance>
					</row>
					<row>
						<data:name>x214</data:name>
						<data:importance>1.0</data:importance>
					</row>
					<row>
						<data:name>x65</data:name>
						<data:importance>10.0</data:importance>
					</row>
					<row>
						<data:name>x226</data:name>
						<data:importance>4.0</data:importance>
					</row>
					<row>
						<data:name>x89</data:name>
						<data:importance>1.0</data:importance>
					</row>
					<row>
						<data:name>x53</data:name>
						<data:importance>4.0</data:importance>
					</row>
					<row>
						<data:name>x238</data:name>
						<data:importance>32.0</data:importance>
					</row>
					<row>
						<data:name>x41</data:name>
						<data:importance>47.0</data:importance>
					</row>
					<row>
						<data:name>x117</data:name>
						<data:importance>1.0</data:importance>
					</row>
					<row>
						<data:name>x1</data:name>
						<data:importance>3.0</data:importance>
					</row>
					<row>
						<data:name>x3</data:name>
						<data:importance>22.0</data:importance>
					</row>
					<row>
						<data:name>x294</data:name>
						<data:importance>9.0</data:importance>
					</row>
					<row>
						<data:name>x270</data:name>
						<data:importance>1.0</data:importance>
					</row>
					<row>
						<data:name>x282</data:name>
						<data:importance>1.0</data:importance>
					</row>
					<row>
						<data:name>x197</data:name>
						<data:importance>4.0</data:importance>
					</row>
					<row>
						<data:name>x66</data:name>
						<data:importance>1.0</data:importance>
					</row>
					<row>
						<data:name>x203</data:name>
						<data:importance>5.0</data:importance>
					</row>
					<row>
						<data:name>x54</data:name>
						<data:importance>6.0</data:importance>
					</row>
					<row>
						<data:name>x215</data:name>
						<data:importance>1.0</data:importance>
					</row>
					<row>
						<data:name>x300</data:name>
						<data:importance>1.0</data:importance>
					</row>
					<row>
						<data:name>x42</data:name>
						<data:importance>45.0</data:importance>
					</row>
					<row>
						<data:name>x118</data:name>
						<data:importance>1.0</data:importance>
					</row>
					<row>
						<data:name>x30</data:name>
						<data:importance>10.0</data:importance>
					</row>
					<row>
						<data:name>x239</data:name>
						<data:importance>25.0</data:importance>
					</row>
					<row>
						<data:name>x2</data:name>
						<data:importance>10.0</data:importance>
					</row>
					<row>
						<data:name>x174</data:name>
						<data:importance>2.0</data:importance>
					</row>
					<row>
						<data:name>x283</data:name>
						<data:importance>11.0</data:importance>
					</row>
					<row>
						<data:name>x162</data:name>
						<data:importance>13.0</data:importance>
					</row>
					<row>
						<data:name>x295</data:name>
						<data:importance>18.0</data:importance>
					</row>
					<row>
						<data:name>x150</data:name>
						<data:importance>1.0</data:importance>
					</row>
					<row>
						<data:name>x198</data:name>
						<data:importance>2.0</data:importance>
					</row>
					<row>
						<data:name>x186</data:name>
						<data:importance>14.0</data:importance>
					</row>
					<row>
						<data:name>x55</data:name>
						<data:importance>40.0</data:importance>
					</row>
					<row>
						<data:name>x43</data:name>
						<data:importance>100.0</data:importance>
					</row>
					<row>
						<data:name>x204</data:name>
						<data:importance>23.0</data:importance>
					</row>
					<row>
						<data:name>x301</data:name>
						<data:importance>6.0</data:importance>
					</row>
					<row>
						<data:name>x119</data:name>
						<data:importance>3.0</data:importance>
					</row>
					<row>
						<data:name>x31</data:name>
						<data:importance>24.0</data:importance>
					</row>
					<row>
						<data:name>x216</data:name>
						<data:importance>1.0</data:importance>
					</row>
					<row>
						<data:name>x228</data:name>
						<data:importance>4.0</data:importance>
					</row>
					<row>
						<data:name>x272</data:name>
						<data:importance>64.0</data:importance>
					</row>
					<row>
						<data:name>x284</data:name>
						<data:importance>1.0</data:importance>
					</row>
					<row>
						<data:name>x260</data:name>
						<data:importance>1.0</data:importance>
					</row>
					<row>
						<data:name>x187</data:name>
						<data:importance>3.0</data:importance>
					</row>
					<row>
						<data:name>x296</data:name>
						<data:importance>22.0</data:importance>
					</row>
					<row>
						<data:name>x44</data:name>
						<data:importance>25.0</data:importance>
					</row>
					<row>
						<data:name>x302</data:name>
						<data:importance>7.0</data:importance>
					</row>
					<row>
						<data:name>x32</data:name>
						<data:importance>3.0</data:importance>
					</row>
					<row>
						<data:name>x56</data:name>
						<data:importance>40.0</data:importance>
					</row>
					<row>
						<data:name>x108</data:name>
						<data:importance>1.0</data:importance>
					</row>
					<row>
						<data:name>x20</data:name>
						<data:importance>46.0</data:importance>
					</row>
					<row>
						<data:name>x205</data:name>
						<data:importance>7.0</data:importance>
					</row>
					<row>
						<data:name>x192</data:name>
						<data:importance>26.0</data:importance>
					</row>
					<row>
						<data:name>x180</data:name>
						<data:importance>9.0</data:importance>
					</row>
					<row>
						<data:name>x221</data:name>
						<data:importance>1.0</data:importance>
					</row>
					<row>
						<data:name>x58</data:name>
						<data:importance>26.0</data:importance>
					</row>
					<row>
						<data:name>x100</data:name>
						<data:importance>1.0</data:importance>
					</row>
					<row>
						<data:name>x233</data:name>
						<data:importance>107.0</data:importance>
					</row>
					<row>
						<data:name>x258</data:name>
						<data:importance>9.0</data:importance>
					</row>
					<row>
						<data:name>x21</data:name>
						<data:importance>18.0</data:importance>
					</row>
					<row>
						<data:name>x57</data:name>
						<data:importance>122.0</data:importance>
					</row>
					<row>
						<data:name>x234</data:name>
						<data:importance>40.0</data:importance>
					</row>
					<row>
						<data:name>x45</data:name>
						<data:importance>15.0</data:importance>
					</row>
					<row>
						<data:name>x246</data:name>
						<data:importance>12.0</data:importance>
					</row>
					<row>
						<data:name>x181</data:name>
						<data:importance>10.0</data:importance>
					</row>
					<row>
						<data:name>x290</data:name>
						<data:importance>2.0</data:importance>
					</row>
					<row>
						<data:name>x193</data:name>
						<data:importance>32.0</data:importance>
					</row>
					<row>
						<data:name>x59</data:name>
						<data:importance>38.0</data:importance>
					</row>
					<row>
						<data:name>x210</data:name>
						<data:importance>2.0</data:importance>
					</row>
					<row>
						<data:name>x222</data:name>
						<data:importance>10.0</data:importance>
					</row>
					<row>
						<data:name>x22</data:name>
						<data:importance>6.0</data:importance>
					</row>
					<row>
						<data:name>x138</data:name>
						<data:importance>1.0</data:importance>
					</row>
					<row>
						<data:name>x247</data:name>
						<data:importance>2.0</data:importance>
					</row>
					<row>
						<data:name>x10</data:name>
						<data:importance>8.0</data:importance>
					</row>
					<row>
						<data:name>x259</data:name>
						<data:importance>54.0</data:importance>
					</row>
					<row>
						<data:name>x46</data:name>
						<data:importance>11.0</data:importance>
					</row>
					<row>
						<data:name>x223</data:name>
						<data:importance>1.0</data:importance>
					</row>
					<row>
						<data:name>x34</data:name>
						<data:importance>4.0</data:importance>
					</row>
					<row>
						<data:name>x102</data:name>
						<data:importance>6.0</data:importance>
					</row>
					<row>
						<data:name>x235</data:name>
						<data:importance>48.0</data:importance>
					</row>
					<row>
						<data:name>x170</data:name>
						<data:importance>23.0</data:importance>
					</row>
					<row>
						<data:name>x291</data:name>
						<data:importance>1.0</data:importance>
					</row>
					<row>
						<data:name>x194</data:name>
						<data:importance>14.0</data:importance>
					</row>
					<row>
						<data:name>x182</data:name>
						<data:importance>3.0</data:importance>
					</row>
					<row>
						<data:name>x36</data:name>
						<data:importance>58.0</data:importance>
					</row>
					<row>
						<data:name>x11</data:name>
						<data:importance>16.0</data:importance>
					</row>
					<row>
						<data:name>x236</data:name>
						<data:importance>36.0</data:importance>
					</row>
					<row>
						<data:name>x248</data:name>
						<data:importance>4.0</data:importance>
					</row>
					<row>
						<data:name>x35</data:name>
						<data:importance>3.0</data:importance>
					</row>
					<row>
						<data:name>x103</data:name>
						<data:importance>12.0</data:importance>
					</row>
					<row>
						<data:name>x224</data:name>
						<data:importance>4.0</data:importance>
					</row>
					<row>
						<data:name>x91</data:name>
						<data:importance>1.0</data:importance>
					</row>
					<row>
						<data:name>x280</data:name>
						<data:importance>12.0</data:importance>
					</row>
					<row>
						<data:name>x195</data:name>
						<data:importance>3.0</data:importance>
					</row>
					<row>
						<data:name>x183</data:name>
						<data:importance>5.0</data:importance>
					</row>
					<row>
						<data:name>x292</data:name>
						<data:importance>14.0</data:importance>
					</row>
					<row>
						<data:name>x171</data:name>
						<data:importance>28.0</data:importance>
					</row>
					<row>
						<data:name>x37</data:name>
						<data:importance>1.0</data:importance>
					</row>
					<row>
						<data:name>x25</data:name>
						<data:importance>8.0</data:importance>
					</row>
					<row>
						<data:name>x104</data:name>
						<data:importance>15.0</data:importance>
					</row>
					<row>
						<data:name>x237</data:name>
						<data:importance>7.0</data:importance>
					</row>
					<row>
						<data:name>x24</data:name>
						<data:importance>22.0</data:importance>
					</row>
					<row>
						<data:name>x12</data:name>
						<data:importance>15.0</data:importance>
					</row>
					<row>
						<data:name>x249</data:name>
						<data:importance>3.0</data:importance>
					</row>
					<row>
						<data:name>x128</data:name>
						<data:importance>2.0</data:importance>
					</row>
					<row>
						<data:name>x80</data:name>
						<data:importance>2.0</data:importance>
					</row>
					<row>
						<data:name>x265</data:name>
						<data:importance>2.0</data:importance>
					</row>
					<row>
						<data:name>x14</data:name>
						<data:importance>50.0</data:importance>
					</row>
					<row>
						<data:name>x144</data:name>
						<data:importance>1.0</data:importance>
					</row>
					<row>
						<data:name>x277</data:name>
						<data:importance>7.0</data:importance>
					</row>
					<row>
						<data:name>x241</data:name>
						<data:importance>5.0</data:importance>
					</row>
					<row>
						<data:name>x120</data:name>
						<data:importance>1.0</data:importance>
					</row>
					<row>
						<data:name>x253</data:name>
						<data:importance>17.0</data:importance>
					</row>
					<row>
						<data:name>x13</data:name>
						<data:importance>9.0</data:importance>
					</row>
					<row>
						<data:name>x169</data:name>
						<data:importance>21.0</data:importance>
					</row>
					<row>
						<data:name>x278</data:name>
						<data:importance>16.0</data:importance>
					</row>
					<row>
						<data:name>x81</data:name>
						<data:importance>10.0</data:importance>
					</row>
					<row>
						<data:name>x15</data:name>
						<data:importance>55.0</data:importance>
					</row>
					<row>
						<data:name>x145</data:name>
						<data:importance>1.0</data:importance>
					</row>
					<row>
						<data:name>x133</data:name>
						<data:importance>1.0</data:importance>
					</row>
					<row>
						<data:name>x266</data:name>
						<data:importance>2.0</data:importance>
					</row>
					<row>
						<data:name>x121</data:name>
						<data:importance>2.0</data:importance>
					</row>
					<row>
						<data:name>x230</data:name>
						<data:importance>2.0</data:importance>
					</row>
					<row>
						<data:name>x27</data:name>
						<data:importance>9.0</data:importance>
					</row>
					<row>
						<data:name>x242</data:name>
						<data:importance>7.0</data:importance>
					</row>
					<row>
						<data:name>x158</data:name>
						<data:importance>1.0</data:importance>
					</row>
					<row>
						<data:name>x146</data:name>
						<data:importance>5.0</data:importance>
					</row>
					<row>
						<data:name>x279</data:name>
						<data:importance>9.0</data:importance>
					</row>
					<row>
						<data:name>x82</data:name>
						<data:importance>38.0</data:importance>
					</row>
					<row>
						<data:name>x8</data:name>
						<data:importance>7.0</data:importance>
					</row>
					<row>
						<data:name>x243</data:name>
						<data:importance>19.0</data:importance>
					</row>
					<row>
						<data:name>x255</data:name>
						<data:importance>2.0</data:importance>
					</row>
					<row>
						<data:name>x110</data:name>
						<data:importance>2.0</data:importance>
					</row>
					<row>
						<data:name>x16</data:name>
						<data:importance>13.0</data:importance>
					</row>
					<row>
						<data:name>x231</data:name>
						<data:importance>11.0</data:importance>
					</row>
					<row>
						<data:name>x159</data:name>
						<data:importance>2.0</data:importance>
					</row>
					<row>
						<data:name>x147</data:name>
						<data:importance>3.0</data:importance>
					</row>
					<row>
						<data:name>x268</data:name>
						<data:importance>3.0</data:importance>
					</row>
					<row>
						<data:name>x9</data:name>
						<data:importance>6.0</data:importance>
					</row>
					<row>
						<data:name>x191</data:name>
						<data:importance>2.0</data:importance>
					</row>
					<row>
						<data:name>x123</data:name>
						<data:importance>1.0</data:importance>
					</row>
					<row>
						<data:name>x232</data:name>
						<data:importance>8.0</data:importance>
					</row>
					<row>
						<data:name>x111</data:name>
						<data:importance>10.0</data:importance>
					</row>
					<row>
						<data:name>x244</data:name>
						<data:importance>1.0</data:importance>
					</row>
					<row>
						<data:name>x17</data:name>
						<data:importance>39.0</data:importance>
					</row>
					<row>
						<data:name>x220</data:name>
						<data:importance>2.0</data:importance>
					</row>
					<row>
						<data:name>x269</data:name>
						<data:importance>3.0</data:importance>
					</row>
					<row>
						<data:name>x148</data:name>
						<data:importance>8.0</data:importance>
					</row>
					<row>
						<data:name>x136</data:name>
						<data:importance>1.0</data:importance>
					</row>
					<row>
						<data:name>x245</data:name>
						<data:importance>27.0</data:importance>
					</row>
					<row>
						<data:name>x257</data:name>
						<data:importance>6.0</data:importance>
					</row>
					<row>
						<data:name>x84</data:name>
						<data:importance>1.0</data:importance>
					</row>
					<row>
						<data:name>x72</data:name>
						<data:importance>1.0</data:importance>
					</row>
				</InlineTable>
			</Extension>
			<MiningField name="y" usageType="target"/>
			<MiningField name="x1" importance="3.0"/>
			<MiningField name="x2" importance="10.0"/>
			<MiningField name="x3" importance="22.0"/>
			<MiningField name="x4" importance="21.0"/>
			<MiningField name="x5" importance="100.0"/>
			<MiningField name="x6" importance="4.0"/>
			<MiningField name="x7" importance="7.0"/>
			<MiningField name="x8" importance="7.0"/>
			<MiningField name="x9" importance="6.0"/>
			<MiningField name="x10" importance="8.0"/>
			<MiningField name="x11" importance="16.0"/>
			<MiningField name="x12" importance="15.0"/>
			<MiningField name="x13" importance="9.0"/>
			<MiningField name="x14" importance="50.0"/>
			<MiningField name="x15" importance="55.0"/>
			<MiningField name="x16" importance="13.0"/>
			<MiningField name="x17" importance="39.0"/>
			<MiningField name="x18" importance="10.0"/>
			<MiningField name="x19" importance="18.0"/>
			<MiningField name="x20" importance="46.0"/>
			<MiningField name="x21" importance="18.0"/>
			<MiningField name="x22" importance="6.0"/>
			<MiningField name="x24" importance="22.0"/>
			<MiningField name="x25" importance="8.0"/>
			<MiningField name="x27" importance="9.0"/>
			<MiningField name="x30" importance="10.0"/>
			<MiningField name="x31" importance="24.0"/>
			<MiningField name="x32" importance="3.0"/>
			<MiningField name="x34" importance="4.0"/>
			<MiningField name="x35" importance="3.0"/>
			<MiningField name="x36" importance="58.0"/>
			<MiningField name="x37" importance="1.0"/>
			<MiningField name="x40" importance="7.0"/>
			<MiningField name="x41" importance="47.0"/>
			<MiningField name="x42" importance="45.0"/>
			<MiningField name="x43" importance="100.0"/>
			<MiningField name="x44" importance="25.0"/>
			<MiningField name="x45" importance="15.0"/>
			<MiningField name="x46" importance="11.0"/>
			<MiningField name="x51" importance="8.0"/>
			<MiningField name="x52" importance="6.0"/>
			<MiningField name="x53" importance="4.0"/>
			<MiningField name="x54" importance="6.0"/>
			<MiningField name="x55" importance="40.0"/>
			<MiningField name="x56" importance="40.0"/>
			<MiningField name="x57" importance="122.0"/>
			<MiningField name="x58" importance="26.0"/>
			<MiningField name="x59" importance="38.0"/>
			<MiningField name="x62" importance="1.0"/>
			<MiningField name="x63" importance="8.0"/>
			<MiningField name="x64" importance="7.0"/>
			<MiningField name="x65" importance="10.0"/>
			<MiningField name="x66" importance="1.0"/>
			<MiningField name="x72" importance="1.0"/>
			<MiningField name="x73" importance="3.0"/>
			<MiningField name="x74" importance="4.0"/>
			<MiningField name="x75" importance="98.0"/>
			<MiningField name="x76" importance="40.0"/>
			<MiningField name="x80" importance="2.0"/>
			<MiningField name="x81" importance="10.0"/>
			<MiningField name="x82" importance="38.0"/>
			<MiningField name="x84" importance="1.0"/>
			<MiningField name="x85" importance="4.0"/>
			<MiningField name="x86" importance="3.0"/>
			<MiningField name="x87" importance="3.0"/>
			<MiningField name="x88" importance="8.0"/>
			<MiningField name="x89" importance="1.0"/>
			<MiningField name="x91" importance="1.0"/>
			<MiningField name="x97" importance="6.0"/>
			<MiningField name="x98" importance="24.0"/>
			<MiningField name="x99" importance="26.0"/>
			<MiningField name="x100" importance="1.0"/>
			<MiningField name="x102" importance="6.0"/>
			<MiningField name="x103" importance="12.0"/>
			<MiningField name="x104" importance="15.0"/>
			<MiningField name="x105" importance="2.0"/>
			<MiningField name="x108" importance="1.0"/>
			<MiningField name="x109" importance="1.0"/>
			<MiningField name="x110" importance="2.0"/>
			<MiningField name="x111" importance="10.0"/>
			<MiningField name="x117" importance="1.0"/>
			<MiningField name="x118" importance="1.0"/>
			<MiningField name="x119" importance="3.0"/>
			<MiningField name="x120" importance="1.0"/>
			<MiningField name="x121" importance="2.0"/>
			<MiningField name="x123" importance="1.0"/>
			<MiningField name="x128" importance="2.0"/>
			<MiningField name="x131" importance="1.0"/>
			<MiningField name="x133" importance="1.0"/>
			<MiningField name="x136" importance="1.0"/>
			<MiningField name="x138" importance="1.0"/>
			<MiningField name="x141" importance="1.0"/>
			<MiningField name="x144" importance="1.0"/>
			<MiningField name="x145" importance="1.0"/>
			<MiningField name="x146" importance="5.0"/>
			<MiningField name="x147" importance="3.0"/>
			<MiningField name="x148" importance="8.0"/>
			<MiningField name="x150" importance="1.0"/>
			<MiningField name="x153" importance="1.0"/>
			<MiningField name="x154" importance="1.0"/>
			<MiningField name="x155" importance="3.0"/>
			<MiningField name="x158" importance="1.0"/>
			<MiningField name="x159" importance="2.0"/>
			<MiningField name="x160" importance="1.0"/>
			<MiningField name="x162" importance="13.0"/>
			<MiningField name="x164" importance="3.0"/>
			<MiningField name="x168" importance="10.0"/>
			<MiningField name="x169" importance="21.0"/>
			<MiningField name="x170" importance="23.0"/>
			<MiningField name="x171" importance="28.0"/>
			<MiningField name="x172" importance="8.0"/>
			<MiningField name="x174" importance="2.0"/>
			<MiningField name="x176" importance="1.0"/>
			<MiningField name="x180" importance="9.0"/>
			<MiningField name="x181" importance="10.0"/>
			<MiningField name="x182" importance="3.0"/>
			<MiningField name="x183" importance="5.0"/>
			<MiningField name="x184" importance="1.0"/>
			<MiningField name="x186" importance="14.0"/>
			<MiningField name="x187" importance="3.0"/>
			<MiningField name="x188" importance="1.0"/>
			<MiningField name="x191" importance="2.0"/>
			<MiningField name="x192" importance="26.0"/>
			<MiningField name="x193" importance="32.0"/>
			<MiningField name="x194" importance="14.0"/>
			<MiningField name="x195" importance="3.0"/>
			<MiningField name="x196" importance="1.0"/>
			<MiningField name="x197" importance="4.0"/>
			<MiningField name="x198" importance="2.0"/>
			<MiningField name="x203" importance="5.0"/>
			<MiningField name="x204" importance="23.0"/>
			<MiningField name="x205" importance="7.0"/>
			<MiningField name="x208" importance="2.0"/>
			<MiningField name="x209" importance="9.0"/>
			<MiningField name="x210" importance="2.0"/>
			<MiningField name="x214" importance="1.0"/>
			<MiningField name="x215" importance="1.0"/>
			<MiningField name="x216" importance="1.0"/>
			<MiningField name="x218" importance="2.0"/>
			<MiningField name="x219" importance="8.0"/>
			<MiningField name="x220" importance="2.0"/>
			<MiningField name="x221" importance="1.0"/>
			<MiningField name="x222" importance="10.0"/>
			<MiningField name="x223" importance="1.0"/>
			<MiningField name="x224" importance="4.0"/>
			<MiningField name="x226" importance="4.0"/>
			<MiningField name="x228" importance="4.0"/>
			<MiningField name="x230" importance="2.0"/>
			<MiningField name="x231" importance="11.0"/>
			<MiningField name="x232" importance="8.0"/>
			<MiningField name="x233" importance="107.0"/>
			<MiningField name="x234" importance="40.0"/>
			<MiningField name="x235" importance="48.0"/>
			<MiningField name="x236" importance="36.0"/>
			<MiningField name="x237" importance="7.0"/>
			<MiningField name="x238" importance="32.0"/>
			<MiningField name="x239" importance="25.0"/>
			<MiningField name="x240" importance="38.0"/>
			<MiningField name="x241" importance="5.0"/>
			<MiningField name="x242" importance="7.0"/>
			<MiningField name="x243" importance="19.0"/>
			<MiningField name="x244" importance="1.0"/>
			<MiningField name="x245" importance="27.0"/>
			<MiningField name="x246" importance="12.0"/>
			<MiningField name="x247" importance="2.0"/>
			<MiningField name="x248" importance="4.0"/>
			<MiningField name="x249" importance="3.0"/>
			<MiningField name="x251" importance="5.0"/>
			<MiningField name="x252" importance="1.0"/>
			<MiningField name="x253" importance="17.0"/>
			<MiningField name="x255" importance="2.0"/>
			<MiningField name="x257" importance="6.0"/>
			<MiningField name="x258" importance="9.0"/>
			<MiningField name="x259" importance="54.0"/>
			<MiningField name="x260" importance="1.0"/>
			<MiningField name="x262" importance="1.0"/>
			<MiningField name="x263" importance="1.0"/>
			<MiningField name="x264" importance="10.0"/>
			<MiningField name="x265" importance="2.0"/>
			<MiningField name="x266" importance="2.0"/>
			<MiningField name="x268" importance="3.0"/>
			<MiningField name="x269" importance="3.0"/>
			<MiningField name="x270" importance="1.0"/>
			<MiningField name="x272" importance="64.0"/>
			<MiningField name="x273" importance="15.0"/>
			<MiningField name="x274" importance="66.0"/>
			<MiningField name="x275" importance="53.0"/>
			<MiningField name="x277" importance="7.0"/>
			<MiningField name="x278" importance="16.0"/>
			<MiningField name="x279" importance="9.0"/>
			<MiningField name="x280" importance="12.0"/>
			<MiningField name="x281" importance="52.0"/>
			<MiningField name="x282" importance="1.0"/>
			<MiningField name="x283" importance="11.0"/>
			<MiningField name="x284" importance="1.0"/>
			<MiningField name="x285" importance="8.0"/>
			<MiningField name="x286" importance="12.0"/>
			<MiningField name="x287" importance="39.0"/>
			<MiningField name="x288" importance="5.0"/>
			<MiningField name="x289" importance="5.0"/>
			<MiningField name="x290" importance="2.0"/>
			<MiningField name="x291" importance="1.0"/>
			<MiningField name="x292" importance="14.0"/>
			<MiningField name="x293" importance="53.0"/>
			<MiningField name="x294" importance="9.0"/>
			<MiningField name="x295" importance="18.0"/>
			<MiningField name="x296" importance="22.0"/>
			<MiningField name="x297" importance="22.0"/>
			<MiningField name="x298" importance="4.0"/>
			<MiningField name="x300" importance="1.0"/>
			<MiningField name="x301" importance="6.0"/>
			<MiningField name="x302" importance="7.0"/>
			<MiningField name="x303" importance="7.0"/>
			<MiningField name="x304" importance="21.0"/>
		</MiningSchema>
		<Segmentation multipleModelMethod="sum" missingPredictionTreatment="returnMissing">
			<Segment id="1">
				<True/>
				<TreeModel functionName="regression" noTrueChildStrategy="returnLastPrediction">
					<MiningSchema>
						<MiningField name="x5"/>
						<MiningField name="x6"/>
						<MiningField name="x14"/>
						<MiningField name="x43"/>
						<MiningField name="x44"/>
						<MiningField name="x55"/>
						<MiningField name="x57"/>
						<MiningField name="x75"/>
						<MiningField name="x76"/>
						<MiningField name="x99"/>
						<MiningField name="x171"/>
						<MiningField name="x181"/>
						<MiningField name="x222"/>
						<MiningField name="x235"/>
						<MiningField name="x236"/>
						<MiningField name="x240"/>
						<MiningField name="x243"/>
						<MiningField name="x245"/>
						<MiningField name="x272"/>
						<MiningField name="x274"/>
						<MiningField name="x281"/>
						<MiningField name="x293"/>
					</MiningSchema>
					<Node score="0.5973299535788781">
						<True/>
						<Node score="0.6145809574062663">
							<SimplePredicate field="x43" operator="greaterThan" value="1889.5000000000002"/>
							<Node score="0.6021703148206485">
								<SimplePredicate field="x57" operator="greaterThan" value="0.688050001859665"/>
								<Node score="0.5905874364542296">
									<SimplePredicate field="x274" operator="greaterThan" value="73.50000000000001"/>
									<Node score="0.5764138788589583">
										<SimplePredicate field="x57" operator="greaterThan" value="1.022749960422516"/>
									</Node>
								</Node>
								<Node score="0.59368263283234">
									<SimplePredicate field="x55" operator="greaterThan" value="1.5000000000000002"/>
								</Node>
								<Node score="0.6118633279277721">
									<SimplePredicate field="x44" operator="greaterThan" value="18020.000000000004"/>
								</Node>
							</Node>
							<Node score="0.581159874408837">
								<SimplePredicate field="x274" operator="greaterThan" value="1.0000000180025095E-35"/>
								<Node score="0.6001617122261197">
									<SimplePredicate field="x222" operator="greaterThan" value="0.1482999995350838"/>
								</Node>
							</Node>
							<Node score="0.6185486249526798">
								<SimplePredicate field="x235" operator="greaterThan" value="9953.000000000002"/>
								<Node score="0.6170710820438836">
									<SimplePredicate field="x181" operator="greaterThan" value="1.0000000180025095E-35"/>
								</Node>
								<Node score="0.6106953478847996">
									<SimplePredicate field="x76" operator="greaterThan" value="1.0000000180025095E-35"/>
								</Node>
								<Node score="0.6266409562778213">
									<SimplePredicate field="x5" operator="greaterThan" value="156.50000000000003"/>
								</Node>
							</Node>
							<Node score="0.6016384135123845">
								<SimplePredicate field="x75" operator="greaterThan" value="60.50000000000001"/>
							</Node>
						</Node>
						<Node score="0.5734474128782961">
							<SimplePredicate field="x75" operator="greaterThan" value="50.50000000000001"/>
							<Node score="0.5682519244854715">
								<SimplePredicate field="x99" operator="greaterThan" value="1.0000000180025095E-35"/>
								<Node score="0.5718840406251731">
									<SimplePredicate field="x281" operator="greaterThan" value="1.0000000180025095E-35"/>
								</Node>
								<Node score="0.5548072600777667">
									<SimplePredicate field="x293" operator="greaterThan" value="0.9774500131607057"/>
								</Node>
								<Node score="0.5549475176755799">
									<SimplePredicate field="x57" operator="greaterThan" value="1.115549981594086"/>
								</Node>
							</Node>
							<Node score="0.5814338715332835">
								<SimplePredicate field="x281" operator="greaterThan" value="1.0000000180025095E-35"/>
								<Node score="0.5883865074149525">
									<SimplePredicate field="x236" operator="greaterThan" value="139.50000000000003"/>
								</Node>
							</Node>
							<Node score="0.5798538241724105">
								<SimplePredicate field="x14" operator="greaterThan" value="1.0000000180025095E-35"/>
								<Node score="0.576010381642912">
									<SimplePredicate field="x272" operator="greaterThan" value="0.006550000049173833"/>
								</Node>
								<Node score="0.5934139062103625">
									<SimplePredicate field="x245" operator="greaterThan" value="1.0000000180025095E-35"/>
								</Node>
							</Node>
							<Node score="0.5675784513419615">
								<SimplePredicate field="x171" operator="greaterThan" value="1.0000000180025095E-35"/>
							</Node>
						</Node>
						<Node score="0.582771188937814">
							<SimplePredicate field="x274" operator="greaterThan" value="35.00000000000001"/>
							<Node score="0.5663332512008116">
								<SimplePredicate field="x243" operator="greaterThan" value="229.00000000000003"/>
							</Node>
						</Node>
						<Node score="0.6048375425530327">
							<SimplePredicate field="x6" operator="greaterThan" value="1.0000000180025095E-35"/>
							<Node score="0.5991161088927606">
								<SimplePredicate field="x240" operator="greaterThan" value="1.0000000180025095E-35"/>
							</Node>
							<Node score="0.6182671806206177">
								<SimplePredicate field="x235" operator="greaterThan" value="4669.500000000001"/>
							</Node>
						</Node>
						<Node score="0.5867580425427771">
							<SimplePredicate field="x57" operator="greaterThan" value="0.9950500130653382"/>
						</Node>
					</Node>
				</TreeModel>
			</Segment>
			<Segment id="2">
				<True/>
				<TreeModel functionName="regression" noTrueChildStrategy="returnLastPrediction">
					<MiningSchema>
						<MiningField name="x5"/>
						<MiningField name="x6"/>
						<MiningField name="x43"/>
						<MiningField name="x44"/>
						<MiningField name="x55"/>
						<MiningField name="x57"/>
						<MiningField name="x75"/>
						<MiningField name="x99"/>
						<MiningField name="x181"/>
						<MiningField name="x234"/>
						<MiningField name="x235"/>
						<MiningField name="x236"/>
						<MiningField name="x240"/>
						<MiningField name="x245"/>
						<MiningField name="x251"/>
						<MiningField name="x272"/>
						<MiningField name="x274"/>
						<MiningField name="x277"/>
						<MiningField name="x281"/>
					</MiningSchema>
					<Node score="0.010086906964675006">
						<True/>
						<Node score="0.020212667611591895">
							<SimplePredicate field="x43" operator="greaterThan" value="1605.5000000000002"/>
							<Node score="0.005829487908724577">
								<SimplePredicate field="x57" operator="greaterThan" value="0.8200500011444093"/>
								<Node score="-0.004506992824850511">
									<SimplePredicate field="x274" operator="greaterThan" value="73.50000000000001"/>
									<Node score="-0.01899084749318877">
										<SimplePredicate field="x277" operator="greaterThan" value="1.5000000000000002"/>
									</Node>
								</Node>
								<Node score="7.706743516899691E-4">
									<SimplePredicate field="x55" operator="greaterThan" value="1.5000000000000002"/>
								</Node>
								<Node score="0.014537591157922365">
									<SimplePredicate field="x44" operator="greaterThan" value="12810.000000000002"/>
								</Node>
							</Node>
							<Node score="0.010933443177750498">
								<SimplePredicate field="x75" operator="greaterThan" value="1.0000000180025095E-35"/>
								<Node score="-0.0041628902601568325">
									<SimplePredicate field="x274" operator="greaterThan" value="155.50000000000003"/>
								</Node>
							</Node>
							<Node score="0.013976871757232444">
								<SimplePredicate field="x181" operator="greaterThan" value="1.0000000180025095E-35"/>
								<Node score="0.0069652276776358095">
									<SimplePredicate field="x274" operator="greaterThan" value="35.00000000000001"/>
								</Node>
								<Node score="0.022183117722934867">
									<SimplePredicate field="x235" operator="greaterThan" value="9953.000000000002"/>
								</Node>
							</Node>
							<Node score="0.031019772090798703">
								<SimplePredicate field="x5" operator="greaterThan" value="172.50000000000003"/>
								<Node score="0.02409877132134355">
									<SimplePredicate field="x57" operator="greaterThan" value="0.4206999987363816"/>
								</Node>
							</Node>
						</Node>
						<Node score="-0.014746009172441097">
							<SimplePredicate field="x75" operator="greaterThan" value="75.50000000000001"/>
							<Node score="-0.02791437449849823">
								<SimplePredicate field="x99" operator="greaterThan" value="1.0000000180025095E-35"/>
								<Node score="-0.015234078154205003">
									<SimplePredicate field="x281" operator="greaterThan" value="1.0000000180025095E-35"/>
									<Node score="-0.022991145573162855">
										<SimplePredicate field="x57" operator="greaterThan" value="1.0899500250816347"/>
									</Node>
								</Node>
							</Node>
							<Node score="-0.010988713312619068">
								<SimplePredicate field="x281" operator="greaterThan" value="1.0000000180025095E-35"/>
								<Node score="-0.004167173183313301">
									<SimplePredicate field="x236" operator="greaterThan" value="139.50000000000003"/>
								</Node>
								<Node score="-5.933151997703191E-4">
									<SimplePredicate field="x251" operator="greaterThan" value="1.0000000180025095E-35"/>
								</Node>
							</Node>
							<Node score="-0.021460113361460004">
								<SimplePredicate field="x234" operator="greaterThan" value="39.50000000000001"/>
								<Node score="-0.016449229000237365">
									<SimplePredicate field="x5" operator="greaterThan" value="76.50000000000001"/>
								</Node>
							</Node>
							<Node score="-0.0038974988624217626">
								<SimplePredicate field="x245" operator="greaterThan" value="1.0000000180025095E-35"/>
							</Node>
						</Node>
						<Node score="-0.007196501584762226">
							<SimplePredicate field="x274" operator="greaterThan" value="35.00000000000001"/>
							<Node score="-0.017366622324764085">
								<SimplePredicate field="x99" operator="greaterThan" value="1.0000000180025095E-35"/>
								<Node score="-0.030957244498399546">
									<SimplePredicate field="x272" operator="greaterThan" value="0.9422500133514405"/>
								</Node>
							</Node>
						</Node>
						<Node score="0.0062555869098906095">
							<SimplePredicate field="x6" operator="greaterThan" value="1.0000000180025095E-35"/>
							<Node score="0.0229743778257647">
								<SimplePredicate field="x44" operator="greaterThan" value="4702.500000000001"/>
								<Node score="0.010356762171339517">
									<SimplePredicate field="x240" operator="greaterThan" value="1.0000000180025095E-35"/>
								</Node>
							</Node>
						</Node>
						<Node score="-1.6031276614162976E-4">
							<SimplePredicate field="x57" operator="greaterThan" value="0.64724999666214"/>
						</Node>
					</Node>
				</TreeModel>
			</Segment>
			<Segment id="3">
				<True/>
				<TreeModel functionName="regression" noTrueChildStrategy="returnLastPrediction">
					<MiningSchema>
						<MiningField name="x5"/>
						<MiningField name="x21"/>
						<MiningField name="x25"/>
						<MiningField name="x41"/>
						<MiningField name="x43"/>
						<MiningField name="x56"/>
						<MiningField name="x57"/>
						<MiningField name="x75"/>
						<MiningField name="x76"/>
						<MiningField name="x99"/>
						<MiningField name="x171"/>
						<MiningField name="x234"/>
						<MiningField name="x235"/>
						<MiningField name="x238"/>
						<MiningField name="x240"/>
						<MiningField name="x243"/>
						<MiningField name="x245"/>
						<MiningField name="x272"/>
						<MiningField name="x274"/>
						<MiningField name="x281"/>
						<MiningField name="x287"/>
						<MiningField name="x293"/>
					</MiningSchema>
					<Node score="0.004393291824833649">
						<True/>
						<Node score="0.016046763846070258">
							<SimplePredicate field="x43" operator="greaterThan" value="1605.5000000000002"/>
							<Node score="0.008247926374734836">
								<SimplePredicate field="x57" operator="greaterThan" value="0.6384499967098237"/>
								<Node score="-6.990152981747783E-4">
									<SimplePredicate field="x56" operator="greaterThan" value="1.0000000180025095E-35"/>
									<Node score="-0.015666706182950043">
										<SimplePredicate field="x243" operator="greaterThan" value="229.00000000000003"/>
									</Node>
								</Node>
								<Node score="0.01641579475768473">
									<SimplePredicate field="x43" operator="greaterThan" value="14050.000000000002"/>
									<Node score="0.007408316789030491">
										<SimplePredicate field="x21" operator="greaterThan" value="8.500000000000002"/>
									</Node>
								</Node>
								<Node score="0.0011884896344560342">
									<SimplePredicate field="x21" operator="greaterThan" value="5.500000000000001"/>
								</Node>
							</Node>
							<Node score="0.010724123308140905">
								<SimplePredicate field="x75" operator="greaterThan" value="68.50000000000001"/>
								<Node score="-0.0045441040114147305">
									<SimplePredicate field="x274" operator="greaterThan" value="171.50000000000003"/>
								</Node>
							</Node>
							<Node score="0.02683300629222071">
								<SimplePredicate field="x235" operator="greaterThan" value="8550.000000000002"/>
								<Node score="0.019186235406090033">
									<SimplePredicate field="x240" operator="greaterThan" value="1.0000000180025095E-35"/>
								</Node>
							</Node>
						</Node>
						<Node score="-0.008504692252994366">
							<SimplePredicate field="x75" operator="greaterThan" value="50.50000000000001"/>
							<Node score="-0.01908511008476896">
								<SimplePredicate field="x99" operator="greaterThan" value="1.0000000180025095E-35"/>
								<Node score="-0.016902249532292232">
									<SimplePredicate field="x281" operator="greaterThan" value="1.0000000180025095E-35"/>
								</Node>
								<Node score="-0.03128915321816441">
									<SimplePredicate field="x293" operator="greaterThan" value="0.9774500131607057"/>
								</Node>
								<Node score="-0.031148637655445035">
									<SimplePredicate field="x41" operator="greaterThan" value="0.9992499947547914"/>
								</Node>
							</Node>
							<Node score="-0.006700249999751088">
								<SimplePredicate field="x281" operator="greaterThan" value="1.0000000180025095E-35"/>
								<Node score="-0.011253434404278485">
									<SimplePredicate field="x171" operator="greaterThan" value="1.0000000180025095E-35"/>
								</Node>
								<Node score="0.0013186827915746013">
									<SimplePredicate field="x25" operator="greaterThan" value="1.0000000180025095E-35"/>
								</Node>
							</Node>
							<Node score="-0.016863007423925682">
								<SimplePredicate field="x272" operator="greaterThan" value="0.2144499942660332"/>
							</Node>
							<Node score="-0.015404537409229369">
								<SimplePredicate field="x287" operator="greaterThan" value="3.6167896187005604"/>
							</Node>
						</Node>
						<Node score="-0.012622216249037504">
							<SimplePredicate field="x274" operator="greaterThan" value="1.0000000180025095E-35"/>
							<Node score="-0.021816020081132884">
								<SimplePredicate field="x243" operator="greaterThan" value="238.50000000000003"/>
							</Node>
							<Node score="-0.004169569741153997">
								<SimplePredicate field="x5" operator="greaterThan" value="114.50000000000001"/>
							</Node>
						</Node>
						<Node score="0.0012772611662375288">
							<SimplePredicate field="x234" operator="greaterThan" value="112.50000000000001"/>
							<Node score="0.012939107408924934">
								<SimplePredicate field="x238" operator="greaterThan" value="38.64647355608087"/>
							</Node>
							<Node score="-0.006674670160435313">
								<SimplePredicate field="x57" operator="greaterThan" value="0.9964500069618226"/>
							</Node>
						</Node>
						<Node score="0.006160493435527315">
							<SimplePredicate field="x235" operator="greaterThan" value="1199.5000000000002"/>
							<Node score="0.005917552011995673">
								<SimplePredicate field="x76" operator="greaterThan" value="1.0000000180025095E-35"/>
							</Node>
							<Node score="0.02251016545751954">
								<SimplePredicate field="x245" operator="greaterThan" value="1.0000000180025095E-35"/>
							</Node>
						</Node>
					</Node>
				</TreeModel>
			</Segment>
			<Segment id="4">
				<True/>
				<TreeModel functionName="regression" noTrueChildStrategy="returnLastPrediction">
					<MiningSchema>
						<MiningField name="x4"/>
						<MiningField name="x5"/>
						<MiningField name="x14"/>
						<MiningField name="x43"/>
						<MiningField name="x44"/>
						<MiningField name="x55"/>
						<MiningField name="x56"/>
						<MiningField name="x57"/>
						<MiningField name="x75"/>
						<MiningField name="x76"/>
						<MiningField name="x186"/>
						<MiningField name="x192"/>
						<MiningField name="x234"/>
						<MiningField name="x236"/>
						<MiningField name="x240"/>
						<MiningField name="x274"/>
						<MiningField name="x278"/>
						<MiningField name="x287"/>
						<MiningField name="x296"/>
					</MiningSchema>
					<Node score="0.009370530216705523">
						<True/>
						<Node score="0.016980963249524857">
							<SimplePredicate field="x43" operator="greaterThan" value="2736.5000000000005"/>
							<Node score="0.005935834689095934">
								<SimplePredicate field="x57" operator="greaterThan" value="0.8587499856948854"/>
								<Node score="-0.004052408937553756">
									<SimplePredicate field="x274" operator="greaterThan" value="255.50000000000003"/>
									<Node score="-0.01663994317667124">
										<SimplePredicate field="x56" operator="greaterThan" value="2.5000000000000004"/>
									</Node>
								</Node>
								<Node score="6.46384188681372E-4">
									<SimplePredicate field="x55" operator="greaterThan" value="1.5000000000000002"/>
								</Node>
								<Node score="0.013758430552868553">
									<SimplePredicate field="x44" operator="greaterThan" value="24000.500000000004"/>
								</Node>
							</Node>
							<Node score="0.002740294257682087">
								<SimplePredicate field="x274" operator="greaterThan" value="1.0000000180025095E-35"/>
							</Node>
							<Node score="0.00977573152045157">
								<SimplePredicate field="x57" operator="greaterThan" value="0.42999999225139623"/>
								<Node score="0.017399641001287148">
									<SimplePredicate field="x4" operator="greaterThan" value="45.50000000000001"/>
								</Node>
							</Node>
							<Node score="0.009509567540983872">
								<SimplePredicate field="x76" operator="greaterThan" value="1.0000000180025095E-35"/>
							</Node>
							<Node score="0.024747617652875618">
								<SimplePredicate field="x5" operator="greaterThan" value="158.50000000000003"/>
							</Node>
						</Node>
						<Node score="-0.00922176972906001">
							<SimplePredicate field="x75" operator="greaterThan" value="109.50000000000001"/>
							<Node score="-3.360411747973665E-4">
								<SimplePredicate field="x236" operator="greaterThan" value="72.50000000000001"/>
								<Node score="-0.011957668276188967">
									<SimplePredicate field="x278" operator="greaterThan" value="1.0000000180025095E-35"/>
								</Node>
								<Node score="-0.006678885476878295">
									<SimplePredicate field="x56" operator="greaterThan" value="1.0000000180025095E-35"/>
								</Node>
							</Node>
							<Node score="-0.022552694331386177">
								<SimplePredicate field="x192" operator="greaterThan" value="1.0000000180025095E-35"/>
								<Node score="-0.01565524041018314">
									<SimplePredicate field="x296" operator="greaterThan" value="1.0000000180025095E-35"/>
								</Node>
							</Node>
							<Node score="-0.004029150523381209">
								<SimplePredicate field="x14" operator="greaterThan" value="1.0000000180025095E-35"/>
								<Node score="-0.010065200552253373">
									<SimplePredicate field="x234" operator="greaterThan" value="13.500000000000002"/>
								</Node>
							</Node>
							<Node score="-0.018748238039514833">
								<SimplePredicate field="x287" operator="greaterThan" value="1.5000000000000002"/>
								<Node score="-0.014074594400437275">
									<SimplePredicate field="x5" operator="greaterThan" value="51.50000000000001"/>
								</Node>
							</Node>
						</Node>
						<Node score="-0.004050793317555783">
							<SimplePredicate field="x274" operator="greaterThan" value="1.0000000180025095E-35"/>
							<Node score="-0.019888423262150262">
								<SimplePredicate field="x57" operator="greaterThan" value="1.0899500250816347"/>
							</Node>
							<Node score="-0.01224036265279306">
								<SimplePredicate field="x192" operator="greaterThan" value="1.0000000180025095E-35"/>
							</Node>
						</Node>
						<Node score="0.017978529847259585">
							<SimplePredicate field="x5" operator="greaterThan" value="178.53611778417337"/>
							<Node score="0.002751398916439644">
								<SimplePredicate field="x57" operator="greaterThan" value="0.9173499941825868"/>
							</Node>
							<Node score="0.0070376874446409984">
								<SimplePredicate field="x186" operator="greaterThan" value="1.5000000000000002"/>
							</Node>
						</Node>
						<Node score="0.011375345860431414">
							<SimplePredicate field="x57" operator="greaterThan" value="0.6105499863624574"/>
							<Node score="-0.0015991007555205983">
								<SimplePredicate field="x234" operator="greaterThan" value="25.500000000000004"/>
							</Node>
							<Node score="-0.0024843699241526443">
								<SimplePredicate field="x240" operator="greaterThan" value="1.0000000180025095E-35"/>
							</Node>
						</Node>
					</Node>
				</TreeModel>
			</Segment>
			<Segment id="5">
				<True/>
				<TreeModel functionName="regression" noTrueChildStrategy="returnLastPrediction">
					<MiningSchema>
						<MiningField name="x5"/>
						<MiningField name="x14"/>
						<MiningField name="x36"/>
						<MiningField name="x43"/>
						<MiningField name="x44"/>
						<MiningField name="x57"/>
						<MiningField name="x75"/>
						<MiningField name="x76"/>
						<MiningField name="x99"/>
						<MiningField name="x118"/>
						<MiningField name="x181"/>
						<MiningField name="x192"/>
						<MiningField name="x222"/>
						<MiningField name="x233"/>
						<MiningField name="x234"/>
						<MiningField name="x235"/>
						<MiningField name="x236"/>
						<MiningField name="x240"/>
						<MiningField name="x245"/>
						<MiningField name="x272"/>
						<MiningField name="x274"/>
						<MiningField name="x277"/>
						<MiningField name="x287"/>
					</MiningSchema>
					<Node score="-0.0011051031369115616">
						<True/>
						<Node score="0.014787900272737107">
							<SimplePredicate field="x43" operator="greaterThan" value="4265.500000000001"/>
							<Node score="0.009122020177101618">
								<SimplePredicate field="x57" operator="greaterThan" value="0.5833500027656556"/>
								<Node score="-2.7508294206029935E-4">
									<SimplePredicate field="x274" operator="greaterThan" value="128.50000000000003"/>
									<Node score="-0.011697288201659495">
										<SimplePredicate field="x118" operator="greaterThan" value="1.5000000000000002"/>
									</Node>
								</Node>
								<Node score="0.003911265127711998">
									<SimplePredicate field="x36" operator="greaterThan" value="3.5000000000000004"/>
								</Node>
								<Node score="0.019842394069815448">
									<SimplePredicate field="x43" operator="greaterThan" value="26578.000000000004"/>
									<Node score="0.010783536084222072">
										<SimplePredicate field="x233" operator="greaterThan" value="18778.500000000004"/>
									</Node>
								</Node>
							</Node>
							<Node score="-0.010866310017613266">
								<SimplePredicate field="x274" operator="greaterThan" value="1.0000000180025095E-35"/>
								<Node score="0.007323067427904549">
									<SimplePredicate field="x222" operator="greaterThan" value="0.2287000045180321"/>
								</Node>
							</Node>
							<Node score="0.022967044154393882">
								<SimplePredicate field="x5" operator="greaterThan" value="169.50000000000003"/>
								<Node score="0.010222616780039813">
									<SimplePredicate field="x76" operator="greaterThan" value="1.0000000180025095E-35"/>
								</Node>
								<Node score="0.017584625368503977">
									<SimplePredicate field="x181" operator="greaterThan" value="1.0000000180025095E-35"/>
								</Node>
							</Node>
						</Node>
						<Node score="-0.0062948393158889435">
							<SimplePredicate field="x75" operator="greaterThan" value="75.50000000000001"/>
							<Node score="1.8300326454683845E-4">
								<SimplePredicate field="x236" operator="greaterThan" value="72.50000000000001"/>
								<Node score="-0.011146940614508305">
									<SimplePredicate field="x192" operator="greaterThan" value="1.0000000180025095E-35"/>
								</Node>
								<Node score="-0.005550889678415209">
									<SimplePredicate field="x36" operator="greaterThan" value="4.500000000000001"/>
								</Node>
							</Node>
							<Node score="-0.024873130249185943">
								<SimplePredicate field="x277" operator="greaterThan" value="1.0000000180025095E-35"/>
								<Node score="-0.01641492878995321">
									<SimplePredicate field="x5" operator="greaterThan" value="62.50000000000001"/>
								</Node>
							</Node>
							<Node score="-0.015675130044720275">
								<SimplePredicate field="x287" operator="greaterThan" value="3.1167896187005604"/>
								<Node score="-0.006441931562289888">
									<SimplePredicate field="x5" operator="greaterThan" value="76.50000000000001"/>
									<Node score="-0.011891291517973936">
										<SimplePredicate field="x234" operator="greaterThan" value="25.500000000000004"/>
									</Node>
								</Node>
							</Node>
						</Node>
						<Node score="-0.008156002554129389">
							<SimplePredicate field="x274" operator="greaterThan" value="73.50000000000001"/>
							<Node score="-0.011554074820865472">
								<SimplePredicate field="x99" operator="greaterThan" value="1.0000000180025095E-35"/>
								<Node score="-0.022792302193598447">
									<SimplePredicate field="x272" operator="greaterThan" value="0.8534500002861024"/>
								</Node>
							</Node>
							<Node score="6.511716928019871E-4">
								<SimplePredicate field="x14" operator="greaterThan" value="1.5000000000000002"/>
							</Node>
						</Node>
						<Node score="-0.007627745541507943">
							<SimplePredicate field="x57" operator="greaterThan" value="0.9280499815940858"/>
							<Node score="9.164109160524037E-4">
								<SimplePredicate field="x44" operator="greaterThan" value="1402.5000000000002"/>
							</Node>
						</Node>
						<Node score="0.006916678440628052">
							<SimplePredicate field="x245" operator="greaterThan" value="1.0000000180025095E-35"/>
							<Node score="0.01870831499005907">
								<SimplePredicate field="x235" operator="greaterThan" value="4669.500000000001"/>
								<Node score="0.009136132160593608">
									<SimplePredicate field="x240" operator="greaterThan" value="1.0000000180025095E-35"/>
								</Node>
							</Node>
						</Node>
					</Node>
				</TreeModel>
			</Segment>
			<Segment id="6">
				<True/>
				<TreeModel functionName="regression" noTrueChildStrategy="returnLastPrediction">
					<MiningSchema>
						<MiningField name="x5"/>
						<MiningField name="x14"/>
						<MiningField name="x31"/>
						<MiningField name="x41"/>
						<MiningField name="x43"/>
						<MiningField name="x55"/>
						<MiningField name="x56"/>
						<MiningField name="x57"/>
						<MiningField name="x75"/>
						<MiningField name="x76"/>
						<MiningField name="x186"/>
						<MiningField name="x192"/>
						<MiningField name="x194"/>
						<MiningField name="x234"/>
						<MiningField name="x235"/>
						<MiningField name="x238"/>
						<MiningField name="x245"/>
						<MiningField name="x253"/>
						<MiningField name="x272"/>
						<MiningField name="x274"/>
						<MiningField name="x281"/>
						<MiningField name="x287"/>
						<MiningField name="x293"/>
					</MiningSchema>
					<Node score="0.002578643467657315">
						<True/>
						<Node score="0.014027169223495463">
							<SimplePredicate field="x43" operator="greaterThan" value="1143.5000000000002"/>
							<Node score="0.00876346059896547">
								<SimplePredicate field="x57" operator="greaterThan" value="0.8640500009059907"/>
								<Node score="-0.009217286927362841">
									<SimplePredicate field="x56" operator="greaterThan" value="1.5000000000000002"/>
								</Node>
								<Node score="4.968974748792366E-4">
									<SimplePredicate field="x253" operator="greaterThan" value="1.3805383436604706"/>
								</Node>
								<Node score="-0.0011309647003228005">
									<SimplePredicate field="x55" operator="greaterThan" value="2.5000000000000004"/>
								</Node>
							</Node>
							<Node score="-0.008064940074272454">
								<SimplePredicate field="x75" operator="greaterThan" value="1.0000000180025095E-35"/>
								<Node score="0.0070081032000328496">
									<SimplePredicate field="x41" operator="greaterThan" value="1.0000000180025095E-35"/>
									<Node score="-0.002573624685505884">
										<SimplePredicate field="x194" operator="greaterThan" value="1.5000000000000002"/>
									</Node>
								</Node>
							</Node>
							<Node score="0.011504193376838376">
								<SimplePredicate field="x186" operator="greaterThan" value="1.5000000000000002"/>
								<Node score="0.004002108530262284">
									<SimplePredicate field="x194" operator="greaterThan" value="2.5000000000000004"/>
								</Node>
							</Node>
							<Node score="0.021145580478808972">
								<SimplePredicate field="x14" operator="greaterThan" value="2.5000000000000004"/>
								<Node score="0.008098995057689467">
									<SimplePredicate field="x76" operator="greaterThan" value="1.0000000180025095E-35"/>
								</Node>
								<Node score="0.01591843876572381">
									<SimplePredicate field="x41" operator="greaterThan" value="0.21055000275373462"/>
								</Node>
							</Node>
							<Node score="0.006512343978552409">
								<SimplePredicate field="x31" operator="greaterThan" value="4.500000000000001"/>
							</Node>
						</Node>
						<Node score="-0.008632014657994415">
							<SimplePredicate field="x75" operator="greaterThan" value="273.50000000000006"/>
							<Node score="-0.001657511555316783">
								<SimplePredicate field="x281" operator="greaterThan" value="1.0000000180025095E-35"/>
								<Node score="-0.014227138544486283">
									<SimplePredicate field="x57" operator="greaterThan" value="1.0622000098228457"/>
								</Node>
								<Node score="-0.009201192912000684">
									<SimplePredicate field="x293" operator="greaterThan" value="0.9848499894142152"/>
								</Node>
								<Node score="-0.006314110650126459">
									<SimplePredicate field="x274" operator="greaterThan" value="35.00000000000001"/>
								</Node>
							</Node>
							<Node score="-0.01880587329969493">
								<SimplePredicate field="x192" operator="greaterThan" value="1.0000000180025095E-35"/>
							</Node>
							<Node score="-0.012923657200528875">
								<SimplePredicate field="x272" operator="greaterThan" value="0.158550001680851"/>
							</Node>
						</Node>
						<Node score="-0.012441895283061125">
							<SimplePredicate field="x274" operator="greaterThan" value="1.0000000180025095E-35"/>
							<Node score="-0.019324268278669135">
								<SimplePredicate field="x57" operator="greaterThan" value="1.1925500035285952"/>
							</Node>
							<Node score="-0.005144416125714153">
								<SimplePredicate field="x5" operator="greaterThan" value="69.50000000000001"/>
							</Node>
						</Node>
						<Node score="0.0010706531567779322">
							<SimplePredicate field="x234" operator="greaterThan" value="100.50000000000001"/>
							<Node score="0.00983501702806309">
								<SimplePredicate field="x238" operator="greaterThan" value="39.50000000000001"/>
							</Node>
							<Node score="-0.004378677430209787">
								<SimplePredicate field="x287" operator="greaterThan" value="1.5000000000000002"/>
							</Node>
						</Node>
						<Node score="0.004240792969633874">
							<SimplePredicate field="x235" operator="greaterThan" value="1199.5000000000002"/>
							<Node score="0.003941664792942097">
								<SimplePredicate field="x76" operator="greaterThan" value="1.0000000180025095E-35"/>
							</Node>
							<Node score="0.017538953575183782">
								<SimplePredicate field="x245" operator="greaterThan" value="1.0000000180025095E-35"/>
							</Node>
						</Node>
					</Node>
				</TreeModel>
			</Segment>
			<Segment id="7">
				<True/>
				<TreeModel functionName="regression" noTrueChildStrategy="returnLastPrediction">
					<MiningSchema>
						<MiningField name="x2"/>
						<MiningField name="x5"/>
						<MiningField name="x14"/>
						<MiningField name="x36"/>
						<MiningField name="x40"/>
						<MiningField name="x43"/>
						<MiningField name="x55"/>
						<MiningField name="x56"/>
						<MiningField name="x57"/>
						<MiningField name="x75"/>
						<MiningField name="x76"/>
						<MiningField name="x171"/>
						<MiningField name="x186"/>
						<MiningField name="x193"/>
						<MiningField name="x222"/>
						<MiningField name="x243"/>
						<MiningField name="x253"/>
						<MiningField name="x274"/>
						<MiningField name="x278"/>
						<MiningField name="x281"/>
						<MiningField name="x293"/>
					</MiningSchema>
					<Node score="0.006668009074877058">
						<True/>
						<Node score="0.011511840666346251">
							<SimplePredicate field="x43" operator="greaterThan" value="4265.500000000001"/>
							<Node score="0.007539649385668018">
								<SimplePredicate field="x57" operator="greaterThan" value="0.843649983406067"/>
								<Node score="-0.008115417820987535">
									<SimplePredicate field="x56" operator="greaterThan" value="1.5000000000000002"/>
								</Node>
								<Node score="-0.0014711089079700475">
									<SimplePredicate field="x36" operator="greaterThan" value="5.500000000000001"/>
								</Node>
								<Node score="-0.001190645695505639">
									<SimplePredicate field="x55" operator="greaterThan" value="2.5000000000000004"/>
								</Node>
							</Node>
							<Node score="-0.00857705628786789">
								<SimplePredicate field="x75" operator="greaterThan" value="144.50000000000003"/>
								<Node score="0.005688375742186454">
									<SimplePredicate field="x222" operator="greaterThan" value="0.1833000034093857"/>
								</Node>
							</Node>
							<Node score="0.014290048119090126">
								<SimplePredicate field="x57" operator="greaterThan" value="0.33235000073909765"/>
								<Node score="0.008581750154600139">
									<SimplePredicate field="x253" operator="greaterThan" value="1.3805383436604706"/>
								</Node>
							</Node>
							<Node score="0.018614415194237132">
								<SimplePredicate field="x14" operator="greaterThan" value="1.5000000000000002"/>
								<Node score="0.008935065334815973">
									<SimplePredicate field="x193" operator="greaterThan" value="1.0000000180025095E-35"/>
								</Node>
							</Node>
						</Node>
						<Node score="-0.00774777839769478">
							<SimplePredicate field="x75" operator="greaterThan" value="1.0000000180025095E-35"/>
							<Node score="-0.004770933343317587">
								<SimplePredicate field="x281" operator="greaterThan" value="1.0000000180025095E-35"/>
								<Node score="-0.01183990267914525">
									<SimplePredicate field="x57" operator="greaterThan" value="1.0320499539375307"/>
								</Node>
								<Node score="-0.006247361544293493">
									<SimplePredicate field="x274" operator="greaterThan" value="35.00000000000001"/>
								</Node>
								<Node score="0.0011851626701719338">
									<SimplePredicate field="x5" operator="greaterThan" value="101.50000000000001"/>
								</Node>
							</Node>
							<Node score="-0.019263414769283616">
								<SimplePredicate field="x293" operator="greaterThan" value="0.8265500068664552"/>
							</Node>
							<Node score="-0.022114283868002817">
								<SimplePredicate field="x243" operator="greaterThan" value="156.50000000000003"/>
							</Node>
							<Node score="-0.005821841150110932">
								<SimplePredicate field="x14" operator="greaterThan" value="1.5000000000000002"/>
							</Node>
							<Node score="-0.01428597769579621">
								<SimplePredicate field="x171" operator="greaterThan" value="1.0000000180025095E-35"/>
							</Node>
							<Node score="-0.0114166548346414">
								<SimplePredicate field="x75" operator="greaterThan" value="1796.5000000000002"/>
							</Node>
						</Node>
						<Node score="-0.018624858392278437">
							<SimplePredicate field="x278" operator="greaterThan" value="1.0000000180025095E-35"/>
							<Node score="-0.008039657175474878">
								<SimplePredicate field="x2" operator="greaterThan" value="18.500000000000004"/>
							</Node>
						</Node>
						<Node score="0.013517835573965797">
							<SimplePredicate field="x5" operator="greaterThan" value="143.50000000000003"/>
							<Node score="-8.392161908103525E-5">
								<SimplePredicate field="x56" operator="greaterThan" value="1.0000000180025095E-35"/>
							</Node>
							<Node score="0.003256435965940964">
								<SimplePredicate field="x76" operator="greaterThan" value="1.0000000180025095E-35"/>
							</Node>
							<Node score="0.0049045944700090265">
								<SimplePredicate field="x186" operator="greaterThan" value="1.5000000000000002"/>
							</Node>
						</Node>
						<Node score="0.00290386192481764">
							<SimplePredicate field="x57" operator="greaterThan" value="0.6384499967098237"/>
							<Node score="-0.00689551699792408">
								<SimplePredicate field="x274" operator="greaterThan" value="1.0000000180025095E-35"/>
							</Node>
							<Node score="-0.003241004604997398">
								<SimplePredicate field="x40" operator="greaterThan" value="1.5000000000000002"/>
							</Node>
						</Node>
					</Node>
				</TreeModel>
			</Segment>
			<Segment id="8">
				<True/>
				<TreeModel functionName="regression" noTrueChildStrategy="returnLastPrediction">
					<MiningSchema>
						<MiningField name="x5"/>
						<MiningField name="x14"/>
						<MiningField name="x31"/>
						<MiningField name="x36"/>
						<MiningField name="x41"/>
						<MiningField name="x43"/>
						<MiningField name="x44"/>
						<MiningField name="x56"/>
						<MiningField name="x57"/>
						<MiningField name="x75"/>
						<MiningField name="x82"/>
						<MiningField name="x104"/>
						<MiningField name="x155"/>
						<MiningField name="x186"/>
						<MiningField name="x234"/>
						<MiningField name="x235"/>
						<MiningField name="x238"/>
						<MiningField name="x240"/>
						<MiningField name="x245"/>
						<MiningField name="x251"/>
						<MiningField name="x272"/>
						<MiningField name="x274"/>
						<MiningField name="x278"/>
						<MiningField name="x281"/>
						<MiningField name="x287"/>
					</MiningSchema>
					<Node score="-2.3811459815239206E-6">
						<True/>
						<Node score="0.011582297559988757">
							<SimplePredicate field="x43" operator="greaterThan" value="927.0000000000001"/>
							<Node score="0.002459740083989159">
								<SimplePredicate field="x57" operator="greaterThan" value="0.8873499929904939"/>
								<Node score="-0.004452936906603623">
									<SimplePredicate field="x278" operator="greaterThan" value="1.0000000180025095E-35"/>
									<Node score="-0.013829948796176238">
										<SimplePredicate field="x56" operator="greaterThan" value="2.5000000000000004"/>
									</Node>
								</Node>
								<Node score="-0.0013338131864546565">
									<SimplePredicate field="x31" operator="greaterThan" value="5.500000000000001"/>
								</Node>
								<Node score="0.00781785267276543">
									<SimplePredicate field="x251" operator="greaterThan" value="1.0000000180025095E-35"/>
								</Node>
							</Node>
							<Node score="0.005024380299772823">
								<SimplePredicate field="x75" operator="greaterThan" value="1.0000000180025095E-35"/>
								<Node score="-0.003146983515035744">
									<SimplePredicate field="x274" operator="greaterThan" value="307.50000000000006"/>
								</Node>
							</Node>
							<Node score="0.004762341004598592">
								<SimplePredicate field="x36" operator="greaterThan" value="3.5000000000000004"/>
								<Node score="0.010874216155456305">
									<SimplePredicate field="x44" operator="greaterThan" value="17722.500000000004"/>
								</Node>
							</Node>
							<Node score="0.00887203246099934">
								<SimplePredicate field="x186" operator="greaterThan" value="1.5000000000000002"/>
							</Node>
							<Node score="0.012027352507118763">
								<SimplePredicate field="x41" operator="greaterThan" value="0.2338499948382378"/>
							</Node>
							<Node score="0.005578713585597514">
								<SimplePredicate field="x82" operator="greaterThan" value="1.0000000180025095E-35"/>
							</Node>
							<Node score="0.017508960980926285">
